1648006083
-382962331
-1178387049
-1600461427
-1831424932
-614094792
776817335
-1995596824
-1595051100
-1448177296
814637344
2062792316
186433547
-1152928293
940979695
-2064573947
792265604
-837679596
-824138346
657539660
755565578
53593047
1672399269
-1032654235
-968002924
-9797867
-1915347728
1433411766
989889126
2088633237
-1654602707
540320208
-769349020
-2030191670
564444859
-246251347
555764057
1284543393
-1118104480
2128411162
1219977961
934484719
-1770991166
139529162
88093901
-1989094449
1841573880
421814672
-794900452
2083554762
-1934222938
1977455034
-1091922214
884175934
1507823485
-1480573267
1603955398
192607639
695327484
-1005934675
-2082250658
1995937157
-1014743188
-1078780614
-982460843
1033934227
652917015
-745349304
-865390160
-812096039
-1611280866
2083442719
1097372279
-2041680731
-2056684388
-976847662
1052605770
-1823063272
423961933
116415867
-222622180
-834752308
-730621475
202790098
-1356546781
-239858586
717997953
-394133072
-276703129
1744470989
-1167476204
-1872469873
-653802396
1634764353
698858194
-1236204162
1274492622
1957245906
-1801399240
-1647632268
2048038099
357421173
-1608461681
1887237575
-1767923475
-1137173310
-411525159
451364994
-1683094956
-1288802082
2012512444
-813644913
-380366300
-1713002398
282040890
1111128812
-627034846
-71809358
1942799574
-453043043
-630997020
428400536
-1917219180
-86133635
-469653860
1576349592
443527383
262863456
2100722574
-1553760778
695690627
-831837465
868176939
-245039404
369309640
1189770704
-1743934542
606871352
2100816880
-381521317
-140868787
-935368598
-305410497
2038464870
892628422
-1103477884
2073916346
-1721292839
-1177348057
1695634236
717126389
751100955
164919791
-1860875091
1775113990
-1615570300
-926030544
303832571
-1113244000
-158530767
391921747
616720129
-1288484275
2053596696
143336120
275280892
-1310685880
124029222
-405127450
1373327200
-161992017
1397275677
-1931149509
627498645
-1649618187
-1980093984
-849263464
-487379600
-297984505
-520806977
299839288
-841289156
-1032157434
442242891
1466107230
-2044155836
1864128593
322512134
1532624216
-173023680
919800803
-2022609304
-1928066357
-1771647644
1435159228
2066535132
974154806
-2011706337
157933951
-759050394
-2021625213
2050952680
-1537555051
1110534312
1769999185
73404500
-238577724
-722018333
-937800231
1744704645
600532313
100396673
396047040
1397047704
2146161252
1661591721
-781346340
-1696217804
-1589611750
1875777905
-71746604
-1580747472
-640435348
-1377250467
-817476467
-1645081504
-725206547
-166792635
-158287859
-2101556791
780418954
-53651508
214284835
-702454505
-1063543527
-1526333410
66909458
323869154
1055747262
1175808087
1371845628
-1114299107
75330797
-2128047560
990057652
1560542795
455299101
-1331939915
842041770
1751062450
-1373766596
1206964411
1201333060
-2102652257
861495913
1451104054
292695677
1253260075
1610835810
-491410151
-1167272563
1382193017
175560306
-852570313
836163641
723682054
211090471
1793940355
1922184339
294455820
-1133501686
90289916
600924794
-967591845
-2037654369
-603038558
-289523916
313673359
-1454806900
-494573009
1053449504
-1064212410
-1934866924
-428637695
460726950
1946361990
971798298
-350830103
873134765
-1636427466
1514243637
-296849990
-845607701
1728923798
1981627869
-2015903002
1788515755
1736852328
1552223951
-1624866972
561794006
680833250
-217552757
-1069127228
-534216102
-367993743
-1374459020
1804787896
-2084029053
-1729809258
-1560787888
-708569002
-1784419214
33770584
-653800825
529924658
382587937
-1559841333
-669072602
1198554792
-1513953459
-723321230
262683422
2107244221
-1334484599
1543797673
1111686146
463849072
-1556520920
982510672
1144965829
565705193
-1565301339
673768482
-907587734
1031356457
-324830148
-890687188
-1380554881
1335431480
-1350503852
1147777430
74832900
1416258099
-1397454191
849020353
924452476
-1783244556
-611725366
-273696917
-1650791061
1360440049
-847579753
-145209651
-1265034060
-1494395729
744493158
-1810906898
-1094566422
1243831613
1397219083
-523559691
-486385404
-1767299057
-1124996265
835494592
2116985759
-1741789149
164602506
-1233661946
2007307556
-91998971
-1189274851
-1852628880
-1154967400
1428311936
70299261
-1608793938
1957234148
-562742471
1512153716
-711823402
978231542
1458261902
1299556449
959017004
264993763
-2143003503
823755678
1206803955
1836322641
1694013759
-104477106
-2062898835
1756481906
418396854
901701727
2103458716
-1222517622
-490331550
-1536668548
740408052
1006567717
-337111844
-1861825356
-2058161463
991186086
-1724518732
776164645
-892738268
-1039198154
48513781
-179927633
-1368417088
1781000530
487870375
855927543
442408280
809701399
399162136
-1552020096
959804726
536573957
-3830730
477137513
-1164062172
-1157782942
1039601126
874232208
-1499862954
-1891149564
423235928
-65274725
460140516
1748474507
1204055906
1335184131
-1054458086
242431581
-950882787
-1717954958
-284294448
1803886936
1935009912
-1292094879
-1563027783
-52499178
1438775352
973990410
1176167733
2050281218
2047385504
1214783928
457737996
522552366
-981962778
-361147181
182009585
-1542570355
1400481932
-1415227970
-429203765
73927997
-1512927496
1112733689
961049131
-1966497677
1681955223
-1413573103
-825256958
699215219
-1907146906
-315247137
535940763
54829096
122251886
816598693
522484916
1488258177
-795374042
1126251685
412903842
2009445785
-1590648653
2091730342
-366764461
-1820411737
-1803066170
-1861588284
1698757690
1194536049
-1665641345
1152373777
-706351943
-188424795
-61562759
-1883307576
-795621000
-1591505045
-1421147412
1601627500
-720787246
-1257701369
159051922
1964800751
-1455521323
-672791106
-1719267062
-172191066
970104549
-76328314
-143982213
467611943
782923225
-1244259444
1138103114
-529000670
1802161556
-1919005171
-1226680274
1954928542
-64894670
-1728933854
-1340753275
1727402895
-381861193
-128214296
-2090416534
1936798189
1491060389
414312270
1101350798
-1456168366
471109713
1005130200
1466326982
-148148043
1884038272
1439266809
504116067
1387339163
552046440
-2133868887
612071643
505540790
1627179559
338362442
-1304570716
297543972
1757512317
1177400203
1789243237
2079896690
-1763019957
-2142592308
-1852010935
1776642716
862886794
-460238339
-535313220
-711773533
-1362671934
-890506277
-357152414
-1829862303
1392966110
-96399238
-1106349400
-2146959590
629919184
236016354
-1914266543
-269167139
2024154862
2019749445
-185652786
-1973038396
358935032
1707324461
1873571694
-1524847467
-39602275
1198234053
1135673728
131482455
1498226626
-291557724
1439986672
164079218
-1925309491
-383902970
1194844661
1326152077
-2145685579
43691600
1422731724
-1978410038
447754434
-409956779
546832596
1522189222
-75201588
603217427
581084057
-612452405
-1262834749
-2022960340
1268767683
1512659234
-1508488524
2056581482
-258831807
1978520750
-2039392118
-1768561728
-122068814
-578032048
-960205297
1396048115
-249227904
1168102197
-1641282964
1140567861
-502206126
-1909281770
1908340823
1623648702
-360115216
93943722
-11068204
582186966
2114391931
1920198220
1436094788
390196224
-1822691508
-1400872525
1744716863
-871021092
-636493935
-2025509621
1788964525
-408509237
958233244
507370564
-1318250117
-570936863
-283521318
737052014
-4518249
2014175153
-1700539378
935795454
476092223
745917793
1989491276
189265426
-1202258336
1797087213
672155672
-1523822218
123027784
1982111173
-554163341
-893905931
849974157
-1617785845
76065777
1702222094
1708719490
-772032641
-816484394
1335181578
-738705901
740565351
517142413
318950707
-348555452
-587343629
1856019411
-211966227
1402816336
951321090
1902767044
1745157722
-2106542883
717414208
1815439262
342587071
772510714
1854976254
-1382582819
1029615800
1063858474
478109787
372490532
-482876313
-1595075319
-700295309
-1118170634
-797156713
125612257
-750620465
-1483072520
-1587763454
990825039
2002897392
-1099123378
-662068181
869919630
1624242436
725413953
985075430
1192457851
-2083490088
1455377970
-145197125
-2061182871
-1283639758
-259500095
898592735
-1968640330
-219700065
1967218588
1272678896
-856216108
1357707680
-220640222
-1934421229
281824181
1935188110
1780904638
-366572967
1689899712
1571857593
664750879
1355391527
271663707
826005527
828415876
-1275150613
2021959875
1347550714
1039051257
132699849
1964296786
-1237227350
982679253
1525708212
939242639
-687689979
295517428
801789268
-376399428
-1437337456
-368731438
1189307493
473464648
295156862
-1583091802
968981428
-940586553
1368563703
-1598294131
1188080981
-1970414642
-147799450
1213938596
1471635824
937335
-981946277
504647506
-117600174
463486725
53336053
-558922012
1801527009
985797123
1551234085
-218231438
1149031193
-323980970
-122929204
-580250499
-1709281337
2041632181
-1952550306
-1095411218
-661518044
-1489117130
-1404366494
-1491596323
1413218331
99385604
-571916298
1208464283
-2118521286
-1742885529
1601375730
929839131
1785121208
-2082740442
1709567949
1137099138
1860567668
-412435637
1086261572
1079782406
-1930654039
-485019176
1266820641
-424793593
770006772
-1557947616
299658593
-1103171893
463095642
1696346729
-1563522240
1828235745
762933801
-1576071513
-1166188734
-2029761353
988351982
-1502611285
-368819672
-84325849
-1272312632
2073608338
-1383528971
-351071050
1888211186
645125502
-1212850442
925204594
-374041672
-2093381369
1601467725
2132300048
1166351800
-530082983
-995729804
-1894046487
1577202583
1165072366
-634548264
1269541398
-1571664387
347098304
-2822080
-830822768
-1240718911
-851233469
1334870793
1939726882
-1657095744
-536744923
122904641
1930100973
-1903796206
792601309
1480001022
1525976033
-962252772
2001190257
-687896300
-1545834146
-1262297744
-1433790038
455936601
-1454577013
1776939208
-1498769368
-394211745
-1266928110
-68678759
-1277278246
61029907
309586826
911052286
-1624128568
1178948843
872862153
1299193808
-999767346
765980418
-2048792790
-1575006851
1015772454
-83557415
1915622411
1060388381
-622489891
573112459
-1704347833
-432383907
-434554535
-8398075
465277893
2063521994
-1377466888
-1620665746
1451999640
549205085
1383686468
-115984720
1715125577
-563639443
-187191133
264635824
-707726536
145330686
-1317732874
-1852683357
-1139587218
-1877498658
-1646651263
-845617001
581468547
-108533540
-1018252576
713829972
1999005102
-1871474492
1079619032
-372347527
298968733
-93720162
2121269938
-260332697
724644392
1166184498
1156124588
408037087
-767966269
-1334425335
-1031336331
387627107
-895635803
65907720
1658886413
-1676147167
-1753096038
263184366
-1382678286
-418322934
-318414978
662752168
-90230527
-1232626847
1596719422
-630401589
-684600014
1058284506
560524961
1853746756
-839741404
-1388159915
1659002594
767046859
-349540641
-1414456910
739159244
-182674858
1622180848
954064447
-1356447414
-1072010345
1965198843
683004778
579448396
-1672411581
-433116937
-2138689014
-784146123
344858710
1168487084
-1527449052
-1950532490
1325796271
509676920
1479842189
-1575417473
1479223462
908079416
-314313147
-455506425
424654326
-759881347
195639060
1915005213
1616923512
1667151634
1260537768
-1585610001
-1035277588
-762779122
-1238407112
1473478753
-818952590
-318094949
-2060322280
1677410032
-538625389
-411143716
270304720
-706644000
299904504
105930098
-1308765103
1921840655
-707409752
431659160
-688835649
1645601370
-381448578
761699590
-745673356
-960308363
1936568262
2013376173
2039133777
1162047870