-1472328828
1626480214
1731761150
-1811274070
1427198053
125770637
-1265951815
-1851217264
1370865382
160692536
-1173316701
129726188
-1307949662
-1214612752
-246694179
987926630
631039661
1552695395
-1188733195
-1737240312
-809620181
-1323555895
-1361404843
-1681946348
1156472790
-1207516587
1431789726
1775765511
15728349
-492847824
18321927
-420594110
-1735734564
-783378091
1370575864
1702973305
-828839310
820515504
82511320
-1127211611
425312686
271639936
148812202
1108331505
-1601185153
1263377091
1874014773
1950969618
-1019163218
682762606
1193165672
2033676011
722915763
2020557771
1682606673
1867050441
489163970
-2061263352
31921908
-1159067398
-187739506
-43286620
-1010116208
2118636930
-202492745
348491182
715168786
-1784658754
1121608097
-1932858025
-219046351
45426428
272440267
-326821610
830009721
-1889323666
997639694
-710498551
903613373
269879106
-583776156
-1342013320
-1389460132
2044191022
-185145971
-297211769
42899079
-1061567910
774543897
-1040495229
-665158092
495353191
1242581142
795336624
118443677
-1431088945
-1967446684
-2101566764
257665071
-95830597
-73070015
-1136901564
-1647546206
1385090615
-916046603
1594319574
862847658
-1510386275
294106244
-811520383
182389099
278651225
80523064
1892791829
993126526
1226151234
-701074078
403617985
-2061537551
-351133455
1743301210
-1667267904
-1667091758
-1930260910
894734213
-1749512573
-912274899
972717405
-2127236938
2059772988
-1174513447
810659164
1127210608
178652621
-1345207617
1236353524
648354048
1531027604
-1586157485
1377280472
1329703397
1435765322
-495829658
-395883127
-811984051
-271760873
604433476
-1398636344
-984024205
-663293229
607066244
-975034757
1785573510
-1502782060
989411881
867471947
-578219087
-1230936077
-676611547
1879826265
-1203990920
1139940307
-1434604294
-1271204657
88472573
1060100862
1252858121
1474378851
555787488
-981358079
-1187559182
-433377339
-1569216651
1412806131
2074927967
-449599424
1270582816
472406558
1605753797
1859051405
-2027946228
1526736977
-296884783
-1810637052
1603104061
214584658
181043469
1158580865
625715070
-1668237517
390895254
661057604
-108116661
1349904023
-1527784690
-450796023
2098211215
582734554
-1867762262
-71795993
1139881091
-1160263677
-1933164189
-771169866
-1863186595
1615008983
-1141576374
495705812
-619164535
1851959268
-2071882015
-1779532514
-168901833
-1205921832
1384169602
-1591535781
1824779848
-559266247
-760347015
-855017545
-2009303976
-1606344406
526952893
1478597058
-54440480
1703404546
-440151336
-1488407376
399548258
-412944710
1879675325
-589224789
-154633667
-22724102
-1484466064
-816321239
-244969778
2098384033
-1766012002
2057140470
1951329220
-455793725
-1097018427
-1593752251
24459675
-1121207613
544642682
-795523247
-225127049
-1382001297
240767091
990212765
6952068
-1173921063
1188154432
-1546057781
1325006772
1792609230
1811897839
-405394243
-825465822
576173596
2082666277
1362317678
-1142730472
36573165
462698776
557073389
-548436048
-1078422265
1396000830
-1974478357
1233081549
273465261
763009796
952106692
218034159
970493864
-47816553
-1664054538
514073310
343118679
-253132273
2011880683
-568208099
-1862828816
-1274835062
-473727317
-1956357887
-1449026916
621534615
1055113086
-736802751
428778930
1825974390
612446057
688927338
1071325698
-883711958
346439338
-1349528656
2022691
1387678938
-1259570482
1991904946
-1460109745
279197966
-1692947108
-1496629639
-266158171
1391970343
393692393
1968613719
-1993118706
1448511906
-478941257
331392583
-2061064685
521511092
362115525
747465841
-2090840990
-1017924627
948153474
263340487
1182753246
1372832900
-2011941019
-1617658476
-68972746
-1822444643
-137827269
529895437
-789020848
1167857552
-1595725276
-1830873949
-1356086870
118146591
65253344
1773473698
-2134441712
1269094046
1189305230
-301227205
1104602988
-1958036055
-1507572430
-1189223217
-2145211913
-1579941433
-1569778356
-291653911
-1522000053
-1053810693
-331105154
1402433767
1956532783
1150983752
52504380
1972266036
1109662114
-915725800
1588276616
-947148977
-1623234807
-1978449758
-959500594
39116026
1764699019
-2131027825
-1349072045
121795442
-604184785
-398210359
2072378196
-260817041
1086189506
-2082443979
1936582690
1947782127
167487323
1290277543
-1529415855
1910445305
1544693534
193191940
1626719947
167487887
2024429577
-1756122922
122527028
707020753
332941091
2110946723
-1304766800
1015482609
2030661415
368161670
-1722089351
1695372999
312883409
1319657790
-98850397
1430611682
-2140051092
2079010491
-1975793776
1723142488
-2075011384
-730848132
2123360120
278787193
-528425732
-946499683
-2001338585
1221448428
510169656
-1830291124
-932225883
2091190159
-1792305983
1560942558
-518966736
1667358795
1847332604
-1925974913
-901958667
-186174120
-1866237084
-1219565928
1327860350
-667928293
-685553817
-468973375
-433544535
643519519
-653243978
-134727004
-1400545246
-620404540
175490214
-324398552
-1271119292
-1558546108
378315557
2089921686
281303437
-1287262224
-2009824011
2138567657
-730447861
-355591785
211268408
1696275367
1561265816
1108567472
1919140206
1331822297
643534227
2055216021
45907006
-1790465851
-1515008211
-1956028447
-755192729
-782876019
-50336981
-2081692460
2142531191
-263284366
680259444
-1673956517
1116899029
1621893407
1996331918
650351928
-1259925066
-507033567
1464373532
902328234
1043848482
-1532965921
98237377
-791193543
-2073124689
202308720
898302655
310670992
-655681998
-1695069141
-1122327928
1970325850
-1238236165
-1696113162
1178479266
1443634192
1075790285
-1063320809
-166320842
1513727276
-346156452
-1201873087
285565684
-1439644531
-1919019694
-1264389843
-259602850
604346479
1428816854
-1105253649
1926383115
-2034788126
53769926
-812445549
-719258992
-793952178
-560126392
881219750
-1441191354
-1026555780
-484423476
1550155506
-1109277258
-1640155860
2107205306
-2053829076
1812554637
1080633638
655283493
979653229
453842771
-1825205294
-481126772
381092205
647112005
-1445546707
-1584351059
-1629323053
-614591572
-1015046450
2067627220
419464971
1868583529
-186747089
-812370815
-145571516
-1501165191
1194550830
1263267775
1653668752
915321453
-2032419794
1714538778
2129636388
750963374
826462626
-1859450034
-1306812376
1834666907
-1616827507
-1631945560
-403049452
-1512076889
1024187990
1201454366
-735966001
-210992906
1785519998
2043552089
-300292330
-1728715222
-481902583
-599983810
11271762
1298958025
-1593481295
-1950374174
1722714191
-1276626138
-1787194248
1382263338
-1060236538
560541223
-216260559
1087056237
-1555038422
1027825129
-109295304
-843513642
-430621832
470627427
497501705
-842657978
-319550797
-1968089369
1151139030
702502089
1566182597
912033234
-278525470
-793268102
478351223
-1639577137
-163908538
-2008898242
155770023
-1304643196
-83888154
-1665765353
1053840808
368817281
-1750000040
-522739111
1364333289
795808056
1519127532
-82653385
-2108599954
-129995291
1631802368
785285803
436377445
-1636802487
-533751918
399785822
-1803964500
1259492057
64468260
1191832795
546960638
-766879763
43525169
940427352
959840338
-189428735
-515264123
1568867278
-641830638
-1390818179
1003913609
-406988928
-559509152
2141843799
966126976
-1848295432
-991882766
-882310070
-318231382
-205122815
-974578058
54721529
1721670615
240131334
-445013295
1986350599
244276212
1261230595
511104047
-663015197
-38623409
-1500925295
1190351582
-1712065527
-1902212902
797300092
132857481
-1846047146
-202036530
457845301
882318887
1757771916
1367880332
-1847089316
-685163284
-1364845062
2017109847
-1112872385
-1598680330
-1637846664
-549728966
1373002203
611180201
-1882997670
456873671
1131856365
-1392399419
-722193106
-2087612934
634660469
-74426233
214512450
-274384886
397960825
136754236
-1077541571
1983649159
1896246074
566713340
-748945365
-1377174469
-1204144929
-441447817
-1118047222
1524606285
867114608
-119868196
799730723
1731647400
-1437689226
-38063645
-1190764988
1478779907
-1443763810
-1760767020
340630498
200335488
372791422
-242670499
1027796346
-1886931678
-1278423552
-1037389197
-1049014576
-448577793
-2083346139
1440634254
262560596
1334255976
-1914033123
-594811098
-75890195
-1973620138
-1427258599
-1112432859
1267085571
-1058070850
1566312623
-977400614
1868401455
334040336
1676927440
725546317
1094796773
1829999000
-1279473060
1451952725
-546413957
-2066780735
533678068
1138015082
-1661775582
1206952998
244002360
-208273017
1421804231
1104971299
997790470
-1469172978
1548693528
-296969568
1624463418
-575442646
601793212
-502669796
238013085
-557196031
1255105918
-932753223
204817645
-2102700821
-1580799118
929974616
-1649671428
-1163430608
-1716689778
-1740877659
1192667187
-150473508
1887115055
-1355842896
-579938390
1605666391
1488348013
-1331779011
840723035
1749693238
-157867809
1108805904
2127900430
743009231
-8290144
74319890
1280083019
994037068
1716692684
823532505
935908024
-2050131742
-1840761939
1403548696
-1965754480
-899609124
-640728209
1300646189
1442474811
-1865675866
-1311242817
295474661
-788930979
-1288427567
890953638
1013030597
-572995475
-1620615954
-2001279593
-138164339
-175113260
-643839257
-129014570
-1212996440
-1719513234
1459267320
-63345408
1634830393
779809005
-1485990396
495406250
561843115
-960769877
-1119055786
-2081032750
-506139547
-1258264555
1155486727
229880851
29449004
1273510519
548688539
888886655
-1384719048
-647047098
1272882990
-146736323
-1821110989
-1442189118
537066640
1125106171
1626277714
553042245
-1095340471
1476858906
-2020133761
1822810061
-1215208007
2103250376
538799863
-1773668927
486110070
-2125341439
638971756
1682857044
778631319
-98296644
1393128926
1646132226
-929951011
1803599286
-2069342783
-520540851
-1392627400
-292435928
-1873923747
256595683
-244620115
1657286805
-2017167004
-351190149
1579602743
59794449
816251726
-1014658641
1301929749
-397752188
-577949521
852267607
-902640032
-478764473
2109873977
176801335
-1555323017
-1094093762
348412881
-1836028889
-1184483890
-827936173
145546202
257001778
-95769446
-168911692
677293149
207437918
-150214471
615127617
-462743638
929693714
-851873434
-230808975
1243017741
1361835892
971380286
1496894178
1932324296
1025073385
1163716775
757042354
-1869144435
1914897290
1762544670
-1040587965
-646612103
-1437435810
-1176462084
2065550886
1898285545
-564959774
1183356589
1027179649
675944123
-911120860
902402795
1389213989
1949767424
-1225201456
1998312156
-253071977
1167250281
854631587
694155559
-1424572131
-1920538706
1328385901
557367718
-1528677267
-1116099270
-376135802
155507939
1761689631
-579121715
2017941648
1618682912
2089228790
1441932746
1376651798
2143664801
-1899337850
30237475
-383195915
1309765104
-1440112120
1515575118
-1683902449
-120480166
-1034627785
-1431315069
-1885436704
-1041033185
-1023591424
1673326095
1627001224
-306540273
1050628159
1040004538
-1735883579
-457263196
-361421823
-1635825452
-1397481504
-408678263
-1075103583
-171855321
-810560009
1401235642
97832522
-1321644605
-494633892
-1907927998
-1777838425
372904234
241954127
-1951285488
-1730194921
1033890776
454192239
576645064
-1691466310
1666357909
-712939452
2031186653
-1064833838
1753111671
191643364
110125108
1629490646
-1286455568
-1027507862
-492612181
1655449950
917234134
1784907289
-1072409865
1609369689
-1407810751
664563595
2004010773
-1635481135
-40124866
-221594227
-855885399
-754053269
1885245428
-23917606
-1155122362
700173104